digraph Tree {
node [shape=box] ;
0 [label="PlatformWorkedWith_WordPress <= 0.5\ngini = 0.433\nsamples = 68342\nvalue = [21678, 46664]"] ;
1 [label="MainBranch_I am a developer by profession <= 0.5\ngini = 0.452\nsamples = 59353\nvalue = [20525, 38828]"] ;
0 -> 1 [labeldistance=2.5, labelangle=45, headlabel="True"] ;
2 [label="PlatformWorkedWith_Heroku <= 0.5\ngini = 0.499\nsamples = 14284\nvalue = [6769, 7515]"] ;
1 -> 2 ;
3 [label="gini = 0.5\nsamples = 13141\nvalue = [6568, 6573]"] ;
2 -> 3 ;
4 [label="gini = 0.29\nsamples = 1143\nvalue = [201, 942]"] ;
2 -> 4 ;
5 [label="PlatformWorkedWith_Heroku <= 0.5\ngini = 0.424\nsamples = 45069\nvalue = [13756, 31313]"] ;
1 -> 5 ;
6 [label="gini = 0.438\nsamples = 40965\nvalue = [13276, 27689]"] ;
5 -> 6 ;
7 [label="gini = 0.207\nsamples = 4104\nvalue = [480, 3624]"] ;
5 -> 7 ;
8 [label="MainBranch_I am a developer by profession <= 0.5\ngini = 0.224\nsamples = 8989\nvalue = [1153, 7836]"] ;
0 -> 8 [labeldistance=2.5, labelangle=-45, headlabel="False"] ;
9 [label="PlatformWorkedWith_Heroku <= 0.5\ngini = 0.36\nsamples = 2289\nvalue = [538, 1751]"] ;
8 -> 9 ;
10 [label="gini = 0.381\nsamples = 1987\nvalue = [508, 1479]"] ;
9 -> 10 ;
11 [label="gini = 0.179\nsamples = 302\nvalue = [30, 272]"] ;
9 -> 11 ;
12 [label="PlatformWorkedWith_AWS <= 0.5\ngini = 0.167\nsamples = 6700\nvalue = [615, 6085]"] ;
8 -> 12 ;
13 [label="gini = 0.194\nsamples = 4284\nvalue = [467, 3817]"] ;
12 -> 13 ;
14 [label="gini = 0.115\nsamples = 2416\nvalue = [148, 2268]"] ;
12 -> 14 ;
}