digraph Tree {
node [shape=box] ;
0 [label="PlatformWorkedWith_Linux <= 0.5\ngini = 0.486\nsamples = 68342\nvalue = [39862, 28480]"] ;
1 [label="MainBranch_I am a developer by profession <= 0.5\ngini = 0.409\nsamples = 34914\nvalue = [24910, 10004]"] ;
0 -> 1 [labeldistance=2.5, labelangle=45, headlabel="True"] ;
2 [label="EduOther_Participated in online coding competitions (e.g. HackerRank, CodeChef, TopCoder) <= 0.5\ngini = 0.493\nsamples = 8942\nvalue = [4983, 3959]"] ;
1 -> 2 ;
3 [label="gini = 0.484\nsamples = 7335\nvalue = [4320, 3015]"] ;
2 -> 3 ;
4 [label="gini = 0.485\nsamples = 1607\nvalue = [663, 944]"] ;
2 -> 4 ;
5 [label="PlatformWorkedWith_AWS <= 0.5\ngini = 0.357\nsamples = 25972\nvalue = [19927, 6045]"] ;
1 -> 5 ;
6 [label="gini = 0.325\nsamples = 20820\nvalue = [16577, 4243]"] ;
5 -> 6 ;
7 [label="gini = 0.455\nsamples = 5152\nvalue = [3350, 1802]"] ;
5 -> 7 ;
8 [label="PlatformWorkedWith_Raspberry Pi <= 0.5\ngini = 0.494\nsamples = 33428\nvalue = [14952, 18476]"] ;
0 -> 8 [labeldistance=2.5, labelangle=-45, headlabel="False"] ;
9 [label="MainBranch_I am a developer by profession <= 0.5\ngini = 0.5\nsamples = 26212\nvalue = [12708, 13504]"] ;
8 -> 9 ;
10 [label="gini = 0.456\nsamples = 5480\nvalue = [1931, 3549]"] ;
9 -> 10 ;
11 [label="gini = 0.499\nsamples = 20732\nvalue = [10777, 9955]"] ;
9 -> 11 ;
12 [label="Age <= 25.5\ngini = 0.429\nsamples = 7216\nvalue = [2244, 4972]"] ;
8 -> 12 ;
13 [label="gini = 0.362\nsamples = 2783\nvalue = [661, 2122]"] ;
12 -> 13 ;
14 [label="gini = 0.459\nsamples = 4433\nvalue = [1583, 2850]"] ;
12 -> 14 ;
}