digraph Tree {
node [shape=box] ;
0 [label="using_JavaScript <= 0.5\ngini = 0.496\nsamples = 77569\nvalue = [35438, 42131]"] ;
1 [label="OpSys_Windows <= 0.5\ngini = 0.465\nsamples = 25176\nvalue = [15908, 9268]"] ;
0 -> 1 [labeldistance=2.5, labelangle=45, headlabel="True"] ;
2 [label="using_Python <= 0.5\ngini = 0.427\nsamples = 13419\nvalue = [9281, 4138]"] ;
1 -> 2 ;
3 [label="gini = 0.381\nsamples = 6370\nvalue = [4741, 1629]"] ;
2 -> 3 ;
4 [label="gini = 0.458\nsamples = 7049\nvalue = [4540, 2509]"] ;
2 -> 4 ;
5 [label="FizzBuzz_No <= 0.5\ngini = 0.492\nsamples = 11757\nvalue = [6627, 5130]"] ;
1 -> 5 ;
6 [label="gini = 0.457\nsamples = 4268\nvalue = [2762, 1506]"] ;
5 -> 6 ;
7 [label="gini = 0.499\nsamples = 7489\nvalue = [3865, 3624]"] ;
5 -> 7 ;
8 [label="OpSys_Windows <= 0.5\ngini = 0.468\nsamples = 52393\nvalue = [19530, 32863]"] ;
0 -> 8 [labeldistance=2.5, labelangle=-45, headlabel="False"] ;
9 [label="using_Python <= 0.5\ngini = 0.491\nsamples = 27709\nvalue = [11989, 15720]"] ;
8 -> 9 ;
10 [label="gini = 0.5\nsamples = 14378\nvalue = [6987, 7391]"] ;
9 -> 10 ;
11 [label="gini = 0.469\nsamples = 13331\nvalue = [5002, 8329]"] ;
9 -> 11 ;
12 [label="MainBranch_I am a developer by profession <= 0.5\ngini = 0.424\nsamples = 24684\nvalue = [7541, 17143]"] ;
8 -> 12 ;
13 [label="gini = 0.481\nsamples = 5836\nvalue = [2352, 3484]"] ;
12 -> 13 ;
14 [label="gini = 0.399\nsamples = 18848\nvalue = [5189, 13659]"] ;
12 -> 14 ;
}