digraph Tree {
node [shape=box] ;
0 [label="OpSys_Linux-based <= 0.5\ngini = 0.486\nsamples = 77569\nvalue = [45336, 32233]"] ;
1 [label="MainBranch_I am a developer by profession <= 0.5\ngini = 0.459\nsamples = 57872\nvalue = [37179, 20693]"] ;
0 -> 1 [labeldistance=2.5, labelangle=45, headlabel="True"] ;
2 [label="SocialMedia_Reddit <= 0.5\ngini = 0.5\nsamples = 14361\nvalue = [7327, 7034]"] ;
1 -> 2 ;
3 [label="gini = 0.498\nsamples = 12450\nvalue = [6616, 5834]"] ;
2 -> 3 ;
4 [label="gini = 0.467\nsamples = 1911\nvalue = [711, 1200]"] ;
2 -> 4 ;
5 [label="Containers_I do not use containers <= 0.5\ngini = 0.431\nsamples = 43511\nvalue = [29852, 13659]"] ;
1 -> 5 ;
6 [label="gini = 0.467\nsamples = 24431\nvalue = [15375, 9056]"] ;
5 -> 6 ;
7 [label="gini = 0.366\nsamples = 19080\nvalue = [14477, 4603]"] ;
5 -> 7 ;
8 [label="MainBranch_I am a developer by profession <= 0.5\ngini = 0.485\nsamples = 19697\nvalue = [8157, 11540]"] ;
0 -> 8 [labeldistance=2.5, labelangle=-45, headlabel="False"] ;
9 [label="OffOn_Yes <= 0.5\ngini = 0.427\nsamples = 5421\nvalue = [1673, 3748]"] ;
8 -> 9 ;
10 [label="gini = 0.476\nsamples = 1405\nvalue = [549, 856]"] ;
9 -> 10 ;
11 [label="gini = 0.403\nsamples = 4016\nvalue = [1124, 2892]"] ;
9 -> 11 ;
12 [label="Country_United States <= 0.5\ngini = 0.496\nsamples = 14276\nvalue = [6484, 7792]"] ;
8 -> 12 ;
13 [label="gini = 0.5\nsamples = 11482\nvalue = [5577, 5905]"] ;
12 -> 13 ;
14 [label="gini = 0.438\nsamples = 2794\nvalue = [907, 1887]"] ;
12 -> 14 ;
}